{"levels":[{"inputs":[0.45666796101781293,0,0,0,0],"outputs":[1,1,0,1,0,0],"biases":[-0.19595345995075075,-0.15988776070707983,0.3359141808572507,0.04408923965979741,0.10309702680298297,0.07450620005511231],"weights":[[-0.17717321773293832,0.20539662430910596,0.20895346201921325,0.10592283466105104,-0.0997000451734433,-0.3126695202906556],[-0.10250972614867854,-0.21446656766982627,0.10486206258441386,-0.6030817435271328,0.0338712392621493,0.02618205426039228],[0.24267591919384204,0.31658751950182595,-0.4947343109492799,-0.46458110922071794,0.1747351194974207,0.1680898870159862],[0.09392194620174563,-0.5108616493752601,-0.2666881263376868,0.5355423078695698,0.4984637614459637,0.13788777251352222],[0.005694805731874489,0.00850669292204985,0.07756066982557011,-0.1928382572734969,0.17798981587848783,-0.07703340954774512]]},{"inputs":[1,1,0,1,0,0],"outputs":[1,1,1,0],"biases":[-0.6318408218698892,0.30147957258095914,0.01824739675754769,-0.19364514578185518],"weights":[[-0.14553926591156954,0.3097951857773177,0.10204295500066363,-0.21577069322810155],[0.12229602728796493,-0.216697635374293,-0.007436694226413895,-0.29180365870965397],[0.06278801436790454,-0.1910467679755892,0.2875727011172722,0.10929687118202452],[0.3792705937071212,0.25427746275175583,0.41921077029325676,-0.27615912425886224],[0.2626097417118469,0.4439982350943242,-0.3889335783203594,-0.1847906684700275],[-0.10691018279490067,0.2524999373869455,-0.2430119090421673,-0.36224864252409317]]}]}